// #### Generated By: http://www.cufonfonts.com ####
/*!
 * The following copyright notice may not be removed under any circumstances.
 * 
 * Copyright:
 * Copyright © 1989, 1998, 2002 Adobe Systems Incorporated.  All Rights Reserved. ©
 * 1981, 1998, 2002 Heidelberger Druckmaschinen AG. All rights reserved.
 * 
 * Trademark:
 * Eurostile is a trademark of Nebiolo.
 * 
 * Full name:
 * EurostileLTStd-Ex2
 * 
 * Designer:
 * Aldo Novarese, A. Butti
 * 
 * Vendor URL:
 * http://www.adobe.com/type
 * 
 * License information:
 * http://www.adobe.com/type/legal.html
 */
Cufon.registerFont({"w":964,"face":{"font-family":"Eurostile LT Std Extended 2","font-weight":400,"font-stretch":"expanded","units-per-em":"1000","panose-1":"2 11 6 7 2 2 2 6 2 4","ascent":"750","descent":"-250","x-height":"8","bbox":"-45 -898 1326 278.877","underline-thickness":"50","underline-position":"-50","stemh":"70","stemv":"86","unicode-range":"U+0020-U+20AC"},"glyphs":{" ":{"w":482},"!":{"d":"185,0r0,-124r112,0r0,124r-112,0xm201,-210r0,-514r80,0r0,514r-80,0","w":482},"\"":{"d":"202,-482r0,-242r98,0r0,242r-98,0xm34,-482r0,-242r98,0r0,242r-98,0","w":334},"#":{"d":"550,-292r19,-140r-154,0r-19,140r154,0xm319,-292r19,-140r-92,0r0,-70r101,0r30,-222r77,0r-30,222r154,0r30,-222r77,0r-30,222r92,0r0,70r-101,0r-19,140r92,0r0,70r-101,0r-30,222r-78,0r30,-222r-153,0r-30,222r-78,0r30,-222r-92,0r0,-70r102,0"},"$":{"d":"519,-72r101,0v143,0,186,-30,186,-134v0,-91,-37,-114,-160,-114r-127,0r0,248xm439,-408r0,-244r-23,0v-190,0,-258,7,-258,123v0,92,28,121,182,121r99,0xm439,-72r0,-248v-280,-1,-373,-23,-373,-210v0,-165,98,-202,300,-202r73,0r0,-47r80,0r0,47r57,0v256,4,309,60,304,216r-92,0v-1,-118,-16,-136,-269,-136r0,244r108,0v213,4,278,58,271,225v-9,210,-193,190,-379,191r0,50r-80,0r0,-50v-186,1,-371,12,-372,-183r0,-53r92,0v-6,113,14,154,162,156r118,0"},"%":{"d":"484,-374r0,-234v0,-45,-34,-54,-68,-54r-243,0v-34,0,-68,9,-68,54r0,234v0,44,34,53,68,53r243,0v34,0,68,-9,68,-53xm507,8r248,-740r66,0r-247,740r-67,0xm1228,-115r0,-234v0,-45,-34,-54,-68,-54r-243,0v-34,0,-68,9,-68,54r0,234v0,44,34,53,68,53r243,0v34,0,68,-9,68,-53xm25,-371r0,-241v0,-113,72,-120,133,-120r273,0v61,0,133,7,133,120r0,241v0,113,-72,120,-133,120r-273,0v-61,0,-133,-7,-133,-120xm769,-112r0,-241v0,-113,72,-120,133,-120r273,0v61,0,133,7,133,120r0,241v0,113,-72,120,-133,120r-273,0v-61,0,-133,-7,-133,-120","w":1333},"&":{"d":"1053,0r-135,-70v-45,68,-141,78,-239,78r-350,0v-209,0,-262,-72,-262,-238v0,-136,40,-194,177,-200v-66,-43,-79,-53,-79,-156v0,-104,67,-146,162,-146r353,0v166,3,197,80,188,222r-92,0r0,-54v0,-67,-42,-88,-95,-88r-325,0v-77,0,-93,29,-93,76v0,47,1,69,35,87r558,295r0,-162r92,0v-2,70,5,142,-5,205r146,77xm828,-113r-514,-269r-30,0v-26,0,-119,10,-119,126v0,121,-2,184,166,184r335,0v94,0,151,-11,162,-41","w":1087},"(":{"d":"61,-216r0,-240v0,-177,21,-276,196,-276r66,0r0,80v-119,0,-171,-13,-170,155r0,310v0,83,24,115,108,115r62,0r0,80r-66,0v-102,0,-196,-23,-196,-224","w":370},")":{"d":"47,8r0,-80v119,0,171,13,170,-155r0,-310v0,-83,-24,-115,-108,-115r-62,0r0,-80r66,0v102,0,196,23,196,224r0,240v0,177,-21,276,-196,276r-66,0","w":370},"*":{"d":"351,-492r0,-62r-55,-32r-54,32r0,62r54,32xm82,-491r0,-64r159,0r-80,-137r56,-32r79,137r79,-137r56,32r-79,137r158,0r0,64r-158,0r79,137r-56,32r-79,-137r-79,137r-56,-32r80,-137r-159,0","w":592},"+":{"d":"265,0r0,-218r-218,0r0,-70r218,0r0,-218r70,0r0,218r218,0r0,70r-218,0r0,218r-70,0","w":600},",":{"d":"185,0r0,-124r112,0r0,127v0,86,-40,111,-123,111r0,-58v40,-1,49,-7,49,-56r-38,0","w":482},"-":{"d":"82,-225r0,-80r280,0r0,80r-280,0","w":444},".":{"d":"185,0r0,-124r112,0r0,124r-112,0","w":482},"\/":{"d":"-45,8r375,-740r85,0r-376,740r-84,0","w":370},"0":{"d":"61,-234r0,-256v0,-157,53,-242,249,-242r344,0v196,0,249,85,249,242r0,256v0,157,-53,242,-249,242r-344,0v-196,0,-249,-85,-249,-242xm811,-280r0,-164v0,-188,-28,-208,-220,-208r-218,0v-192,0,-220,20,-220,208r0,164v0,188,28,208,220,208r218,0v192,0,220,-20,220,-208"},"1":{"d":"510,0r0,-640r-271,215r-50,-63r298,-236r115,0r0,724r-92,0"},"2":{"d":"73,0r0,-128v0,-158,77,-199,241,-211r322,-23v141,-10,153,-46,153,-138v0,-105,-22,-152,-152,-152r-304,0v-104,0,-165,11,-165,155r0,40r-92,0r0,-68v0,-152,83,-207,254,-207r306,0v208,0,245,94,245,237v0,193,-73,205,-311,221r-150,10v-270,20,-256,20,-255,184r726,0r0,80r-818,0"},"3":{"d":"388,-329r0,-80r277,0v127,0,130,-33,130,-119v0,-111,-24,-124,-173,-124r-280,0v-158,3,-182,28,-174,144r-92,0v-10,-150,41,-224,204,-224r359,0v198,0,248,56,248,186v0,136,-21,149,-113,177v88,11,125,36,125,166v0,132,-9,211,-262,211r-307,0v-220,-1,-268,-60,-259,-233r92,0v0,113,12,153,154,153r279,0v188,0,211,-3,211,-131v0,-118,-32,-126,-117,-126r-302,0"},"4":{"d":"49,-152r0,-114r595,-458r134,0r0,492r121,0r0,80r-121,0r0,152r-92,0r0,-152r-637,0xm686,-232r0,-422r-545,420r0,2r545,0"},"5":{"d":"89,-338r0,-386r779,0r0,80r-687,0r0,226r2,0v32,-64,74,-75,217,-75r241,0v166,0,253,45,253,206v1,199,19,295,-272,295r-323,0v-178,1,-227,-69,-224,-229r92,0v0,95,12,149,148,149r277,0v212,3,211,-47,210,-201v0,-107,-48,-140,-195,-140r-279,0v-78,0,-128,7,-151,75r-88,0"},"6":{"d":"413,-72r134,0v182,0,245,0,245,-146v0,-124,-14,-135,-255,-135r-140,0v-199,0,-225,33,-225,140v0,141,72,141,241,141xm783,-510v4,-104,-8,-142,-162,-142r-297,0v-67,0,-152,20,-152,117r0,196r2,0v27,-83,102,-94,170,-94r334,0v169,-3,206,80,206,246v0,183,-128,195,-292,195r-244,0v-129,0,-268,-15,-268,-211r0,-339v0,-150,132,-190,230,-190r295,0v233,5,275,72,270,222r-92,0"},"7":{"d":"248,0r562,-644r-739,0r0,-80r831,0r0,109r-537,615r-117,0"},"8":{"d":"388,-72r188,0v205,0,222,-19,222,-137v0,-117,-37,-123,-193,-123r-246,0v-156,0,-193,6,-193,123v0,118,17,137,222,137xm364,-412r236,0v158,0,189,-9,189,-124v0,-92,-24,-116,-166,-116r-282,0v-142,0,-166,24,-166,116v0,115,31,124,189,124xm285,8v-168,3,-211,-65,-211,-226v0,-118,31,-138,138,-157v-122,-16,-129,-96,-129,-143v0,-156,46,-214,222,-214r354,0v175,0,222,58,222,214v0,49,-13,125,-122,145v72,12,131,43,131,141r0,71v0,125,-67,169,-211,169r-394,0"},"9":{"d":"427,-371r140,0v199,0,225,-33,225,-140v0,-141,-72,-141,-241,-141r-134,0v-182,0,-245,0,-245,146v0,124,14,135,255,135xm359,8v-233,-5,-275,-72,-270,-222r92,0v-4,104,8,142,162,142r297,0v67,0,152,-20,152,-117r0,-194r-2,0v-27,81,-102,92,-170,92r-334,0v-169,3,-206,-80,-206,-246v0,-183,128,-195,292,-195r244,0v129,0,268,15,268,211r0,339v0,150,-132,190,-230,190r-295,0"},":":{"d":"185,0r0,-124r112,0r0,124r-112,0xm185,-386r0,-124r112,0r0,124r-112,0","w":482},";":{"d":"185,0r0,-124r112,0r0,127v0,86,-40,111,-123,111r0,-58v39,2,49,-13,49,-56r-38,0xm185,-386r0,-124r112,0r0,124r-112,0","w":482},"<":{"d":"47,-215r0,-76r506,-223r0,86r-397,175r397,175r0,86","w":600},"=":{"d":"47,-322r0,-70r506,0r0,70r-506,0xm47,-114r0,-70r506,0r0,70r-506,0","w":600},">":{"d":"553,-291r0,76r-506,223r0,-86r397,-175r-397,-175r0,-86","w":600},"?":{"d":"47,-490r0,-80v0,-162,111,-162,320,-162v286,0,365,10,365,210v0,167,-71,177,-232,205v-40,7,-131,21,-116,96r-80,0v-3,-127,25,-139,207,-174v114,-21,135,-29,135,-138v0,-116,-25,-129,-262,-129v-228,0,-262,7,-251,172r-86,0xm288,0r0,-124r112,0r0,124r-112,0","w":791},"@":{"d":"285,-319v0,62,31,102,80,102v76,0,133,-96,133,-177v0,-56,-37,-95,-81,-95v-77,0,-132,92,-132,170xm667,-156r58,0v-66,104,-180,164,-304,164v-210,0,-379,-138,-379,-371v0,-207,170,-369,374,-369v180,0,342,123,342,304v0,190,-165,281,-242,281v-34,0,-55,-24,-60,-58v-29,32,-71,58,-113,58v-75,0,-138,-75,-138,-160v0,-122,83,-252,206,-252v47,0,89,20,115,70r17,-58r77,0r-69,259v-5,23,-18,71,11,71v60,0,126,-86,126,-195v0,-155,-122,-240,-273,-240v-179,0,-303,127,-303,292v0,184,134,310,314,310v97,0,174,-33,241,-106","w":800},"A":{"d":"15,0r430,-724r122,0r430,724r-111,0r-90,-153r-580,0r-90,153r-111,0xm749,-233r-243,-411r-243,411r486,0","w":1012},"B":{"d":"712,-80v115,0,124,-50,124,-149v0,-90,-50,-104,-139,-104r-503,0r0,253r518,0xm808,-502r0,-66v0,-66,-73,-76,-103,-76r-511,0r0,231r506,0v53,0,108,-17,108,-89xm96,0r0,-724r618,0v178,9,192,86,192,223v0,52,-29,105,-117,114r0,4v77,4,145,33,145,143r0,86v0,101,-90,154,-210,154r-628,0","w":1012},"C":{"d":"77,-263r0,-198v0,-183,62,-271,258,-271r375,0v207,9,235,89,227,242r-86,0r0,-33v0,-123,-76,-129,-166,-129r-340,0v-94,0,-170,28,-170,154r0,272v0,126,76,154,170,154r343,0v154,3,176,-44,170,-171r92,0v5,169,-19,251,-245,251r-370,0v-196,0,-258,-88,-258,-271","w":1012},"D":{"d":"886,-323r0,-74v0,-209,-65,-247,-185,-247r-513,0r0,564r497,0v119,0,201,-26,201,-243xm90,0r0,-724r585,0v243,0,309,76,309,362v0,266,-66,362,-312,362r-582,0","w":1061},"E":{"d":"96,0r0,-724r711,0r0,80r-613,0r0,231r589,0r0,80r-589,0r0,253r617,0r0,80r-715,0","w":864},"F":{"d":"96,0r0,-724r690,0r0,80r-592,0r0,231r569,0r0,80r-569,0r0,333r-98,0","w":839,"k":{"Y":18}},"G":{"d":"984,-359r0,100v0,197,-64,267,-245,267r-404,0v-196,0,-258,-88,-258,-271r0,-198v0,-183,62,-271,258,-271r370,0v138,-3,282,41,269,225r-92,0v0,-135,-41,-145,-283,-145r-254,0v-94,0,-170,28,-170,154r0,272v0,126,76,154,170,154r383,0v98,0,158,-34,158,-134r0,-73r-371,0r0,-80r469,0","w":1061},"H":{"d":"96,0r0,-724r98,0r0,311r654,0r0,-311r98,0r0,724r-98,0r0,-333r-654,0r0,333r-98,0","w":1042},"I":{"d":"99,0r0,-724r98,0r0,724r-98,0","w":296},"J":{"d":"26,-187r0,-80r92,0r0,57v0,114,28,138,154,138r171,0v113,0,160,-19,160,-112r0,-540r98,0r0,521v0,167,-72,211,-250,211r-186,0v-172,0,-239,-59,-239,-195","w":791},"K":{"d":"96,0r0,-724r98,0r0,307r123,0r454,-307r162,2r-519,346r566,374v-52,7,-118,0,-174,2r-497,-337r-115,0r0,337r-98,0","w":987},"L":{"d":"96,0r0,-724r98,0r0,644r562,0r0,80r-660,0","w":765,"k":{"u":55,"\u00fc":55,":":111,"-":111}},"M":{"d":"90,0r0,-724r153,0r423,607r423,-607r153,0r0,724r-98,0r0,-636r-2,0r-441,636r-70,0r-441,-636r-2,0r0,636r-98,0","w":1332},"N":{"d":"90,0r0,-724r146,0r663,636r0,-636r98,0r0,724r-146,0r-663,-636r0,636r-98,0","w":1087},"O":{"d":"912,-226r0,-272v0,-126,-76,-154,-170,-154r-397,0v-94,0,-170,28,-170,154r0,272v0,126,76,154,170,154r397,0v94,0,170,-28,170,-154xm77,-263r0,-198v0,-183,62,-271,258,-271r417,0v196,0,258,88,258,271r0,198v0,183,-62,271,-258,271r-417,0v-196,0,-258,-88,-258,-271","w":1087},"P":{"d":"96,0r0,-724r596,0v132,0,207,28,207,197v0,161,-13,242,-226,242r-479,0r0,285r-98,0xm801,-468r0,-69v0,-86,-47,-107,-132,-107r-475,0r0,279r483,0v78,0,124,-28,124,-103","w":939,"k":{"y":55,"Y":111,";":111,"q":111}},"Q":{"d":"1027,-31r-64,-40v-38,53,-104,79,-211,79r-417,0v-196,0,-258,-88,-258,-271r0,-198v0,-183,62,-271,258,-271r417,0v196,0,258,88,258,271v0,105,8,229,-12,315r73,46xm912,-201r0,-297v0,-126,-76,-154,-170,-154r-397,0v-94,0,-170,28,-170,154r0,272v0,126,76,154,170,154r397,0v75,0,112,-11,140,-51r-290,-184r44,-69","w":1087},"R":{"d":"90,0r0,-724r579,0v237,1,242,86,242,264v0,105,-63,126,-133,139v172,26,113,163,124,321r-92,0r0,-159v0,-113,-55,-127,-144,-127r-478,0r0,286r-98,0xm188,-366r470,0v141,2,155,-49,155,-171v0,-81,-35,-107,-179,-107r-446,0r0,278","w":987},"S":{"d":"78,-228r92,0v-6,113,12,156,160,156r304,0v142,0,184,-30,184,-134v0,-91,-36,-114,-158,-114r-186,0v-299,0,-397,-18,-397,-210v0,-165,98,-202,300,-202r211,0v256,4,309,60,304,216r-92,0v-2,-115,-14,-136,-271,-136r-104,0v-189,0,-256,10,-256,129v0,86,27,115,180,115r290,0v213,4,271,58,271,225v0,178,-146,191,-291,191v-250,0,-572,77,-541,-236","w":987},"T":{"d":"383,0r0,-644r-366,0r0,-80r830,0r0,80r-366,0r0,644r-98,0","w":864,"k":{"\u00fc":56,"\u00f6":56,"T":129,"v":129}},"U":{"d":"96,-182r0,-542r98,0r0,541v0,70,24,111,157,111r340,0v133,0,157,-41,157,-111r0,-541r98,0r0,542v0,147,-74,190,-258,190r-334,0v-184,0,-258,-43,-258,-190","w":1042},"V":{"d":"422,0r-401,-724r110,0r351,636r351,-636r110,0r-401,724r-120,0","k":{"\u00f6":28,"v":55,"V":129,"w":129}},"W":{"d":"294,0r-288,-724r96,0r253,633r248,-633r126,0r245,636r256,-636r96,0r-288,724r-126,0r-246,-636r-246,636r-126,0","w":1332,"k":{"\u00f6":14,"T":129,"v":129,"u":111,"\u00fc":111,"-":111}},"X":{"d":"21,0r399,-383r-354,-341r139,0r301,291r305,-291r135,0r-354,341r399,383r-138,0r-347,-336r-342,336r-143,0","w":1012},"Y":{"d":"433,0r0,-306r-415,-418r132,0r332,336r332,-336r132,0r-415,418r0,306r-98,0","k":{"\u00fc":41,"\u00f6":56,"T":111,"v":111,"V":111,"w":129,"W":111,"y":111,"Y":111,"f":111,"A":111,",":111,"q":74}},"Z":{"d":"42,0r0,-76r661,-568r-640,0r0,-80r794,0r0,70r-664,574r678,0r0,80r-829,0","w":913},"[":{"d":"73,0r0,-724r256,0r0,80r-170,0r0,564r170,0r0,80r-256,0","w":370},"\\":{"d":"331,8r-376,-740r85,0r375,740r-84,0","w":370},"]":{"d":"41,0r0,-80r170,0r0,-564r-170,0r0,-80r256,0r0,724r-256,0","w":370},"^":{"d":"60,-320r199,-404r82,0r199,404r-80,0r-160,-324r-160,324r-80,0","w":600},"_":{"d":"0,125r0,-50r500,0r0,50r-500,0","w":500},"a":{"d":"608,0v-2,-16,4,-39,-2,-51v-23,46,-50,59,-182,59r-206,0v-145,-1,-164,-67,-164,-187v0,-116,82,-130,232,-130r138,0v112,0,152,12,182,61r2,0r0,-96v0,-92,-58,-104,-190,-104r-126,0v-118,4,-131,22,-129,86r-86,0v-6,-119,47,-156,213,-156v196,0,404,-24,404,176r0,342r-86,0xm392,-62v169,-5,216,-2,216,-98v0,-70,-62,-79,-194,-79r-132,0v-119,1,-142,16,-142,96v0,57,20,81,138,81r114,0","w":765},"b":{"d":"476,-62v187,5,171,-94,171,-246v0,-118,-59,-140,-177,-140v-152,0,-303,-24,-303,142v0,148,-3,246,169,244r140,0xm81,0r0,-724r86,0r0,282r2,0v18,-53,65,-76,163,-76r131,0v207,0,270,58,270,221r0,90v3,223,-177,215,-385,215v-92,0,-158,-30,-187,-89r0,81r-80,0","w":791},"c":{"d":"58,-198r0,-114v9,-243,196,-206,400,-206v166,0,227,65,223,187r-80,0v14,-152,-163,-117,-300,-117v-81,0,-157,12,-157,139r0,107v-5,169,164,138,319,140v86,1,154,-28,147,-124r80,0v4,141,-58,194,-224,194r-194,0v-77,0,-214,-21,-214,-206","w":741},"d":{"d":"144,-308v-1,151,-16,252,171,246r140,0v172,2,169,-95,169,-244v0,-166,-150,-142,-303,-142v-118,0,-177,22,-177,140xm710,-724r0,724r-80,0v-2,-26,4,-59,-2,-81v-33,94,-172,89,-305,89v-156,0,-265,-39,-265,-215r0,-90v0,-163,63,-221,270,-221r131,0v101,-2,142,26,165,76r0,-282r86,0","w":791},"e":{"d":"625,-310r0,-34v0,-52,-39,-104,-179,-104r-126,0v-136,0,-168,22,-176,138r481,0xm58,-201r0,-111v10,-241,188,-206,388,-206v154,0,265,39,265,221r0,57r-567,0v-7,139,41,180,206,178r118,0v108,0,152,-14,157,-92r86,0v4,128,-93,160,-257,162r-156,0v-112,0,-240,-21,-240,-209","w":765},"f":{"d":"139,0r0,-440r-111,0r0,-70r111,0v-13,-142,58,-214,168,-214r161,0r0,70r-154,0v-91,2,-93,61,-89,144r243,0r0,70r-243,0r0,440r-86,0","w":494,"k":{":":18}},"g":{"d":"456,-93v151,-1,168,-67,168,-199v0,-95,-32,-156,-153,-156v-138,0,-328,-35,-327,108r0,94v-1,117,41,153,146,153r166,0xm710,-510r0,509v0,154,-135,185,-242,185r-194,0v-166,-7,-203,-82,-200,-169r80,0v-10,108,120,100,232,99v170,0,238,-2,238,-140v0,-24,4,-56,-2,-76v-18,48,-53,79,-173,79r-177,0v-143,0,-214,-73,-214,-204r0,-85v0,-185,134,-206,230,-206v155,0,291,-38,342,99r0,-91r80,0","w":791},"h":{"d":"81,0r0,-724r86,0r0,302r2,0v37,-113,183,-96,329,-96v161,0,212,81,212,173r0,345r-86,0r0,-324v0,-75,-21,-124,-188,-124r-22,0v-201,0,-247,38,-247,158r0,290r-86,0","w":791},"i":{"d":"93,0r0,-510r86,0r0,510r-86,0xm93,-630r0,-94r86,0r0,94r-86,0","w":272},"j":{"d":"9,178r0,-70v67,0,84,-11,84,-62r0,-556r86,0r0,569v2,83,-66,128,-170,119xm93,-630r0,-94r86,0r0,94r-86,0","w":272},"k":{"d":"81,0r0,-724r86,0r0,407r42,0r297,-193v44,2,96,-4,136,2r-352,226r419,280v-40,6,-92,0,-136,2r-369,-247r-37,0r0,247r-86,0","w":716},"l":{"d":"93,0r0,-724r86,0r0,724r-86,0","w":272},"m":{"d":"81,0r0,-510r80,0v2,19,-4,45,2,60v46,-86,182,-68,310,-68v78,0,138,31,165,94v43,-98,159,-94,293,-94v138,0,223,60,223,176r0,342r-86,0r0,-332v0,-59,-26,-116,-163,-116r-61,0v-155,0,-176,64,-176,146r0,302r-86,0r0,-309v0,-99,-31,-139,-168,-139r-86,0v-110,0,-161,46,-161,128r0,320r-86,0","w":1235},"n":{"d":"81,0r0,-510r80,0v2,28,-4,64,2,88v37,-114,188,-96,335,-96v161,0,212,81,212,173r0,345r-86,0r0,-324v0,-75,-21,-124,-188,-124r-22,0v-201,0,-247,38,-247,158r0,290r-86,0","w":791},"o":{"d":"64,-199r0,-112v-3,-213,195,-207,405,-207v163,0,282,39,282,207r0,112v3,213,-195,207,-405,207v-163,0,-282,-39,-282,-207xm665,-204r0,-102v4,-186,-183,-142,-345,-142v-100,0,-170,23,-170,142r0,102v-4,186,183,142,345,142v100,0,170,-23,170,-142","w":815},"p":{"d":"647,-202v0,-143,12,-246,-153,-246r-171,0v-154,0,-159,102,-156,244v4,183,164,142,320,142v100,0,160,-22,160,-140xm81,178r0,-688r80,0v2,26,-4,59,2,81v42,-107,192,-88,334,-89v122,0,236,39,236,215r0,90v0,165,-73,221,-250,221r-164,0v-94,2,-129,-27,-152,-76r0,246r-86,0","w":791},"q":{"d":"624,-204v0,-142,-1,-245,-156,-244r-171,0v-165,-7,-153,102,-153,246v0,179,160,140,313,140v91,0,167,-20,167,-142xm624,178r0,-246r-2,0v-18,53,-59,76,-150,76r-164,0v-177,0,-250,-56,-250,-221r0,-90v7,-243,188,-215,399,-215v78,0,144,31,173,89r0,-81r80,0r0,688r-86,0","w":791},"r":{"d":"88,0r0,-510r80,0v2,23,-4,55,2,74v49,-90,126,-82,237,-82v188,0,223,74,214,238r-80,0v2,-136,-15,-173,-179,-168r-53,0v-91,0,-135,58,-135,124r0,324r-86,0","w":642,"k":{"f":111,",":111,"a":74,"c":37,"\u00e7":37,"e":129,"i":129}},"s":{"d":"62,-176r80,0v-5,83,21,114,121,114r184,0v131,0,171,-5,170,-85v0,-49,-14,-76,-117,-76r-265,0v-134,0,-166,-48,-166,-166v0,-83,47,-129,259,-129r132,0v209,7,224,50,221,155r-80,0v13,-129,-180,-85,-296,-85v-134,0,-150,10,-150,89v0,42,14,66,104,66r227,0v130,0,218,14,217,153v0,143,-132,148,-237,148v-191,0,-421,58,-404,-184","w":765},"t":{"d":"127,-153r0,-287r-112,0r0,-70r112,0r0,-121r86,0r0,121r341,0r0,70r-341,0r0,254v-3,106,48,124,154,124v131,0,134,-50,132,-169r70,0v-1,145,18,233,-196,239r-47,0v-161,0,-199,-78,-199,-161","w":593},"u":{"d":"630,0v-2,-28,4,-64,-2,-88v-37,114,-188,96,-335,96v-161,0,-212,-81,-212,-173r0,-345r86,0r0,324v0,75,21,124,188,124r22,0v201,0,247,-38,247,-158r0,-290r86,0r0,510r-80,0","w":791},"v":{"d":"294,0r-288,-510r91,0r248,440r248,-440r91,0r-288,510r-102,0","w":690,"k":{"i":55,"o":129,"\u00f6":129,"r":129}},"w":{"d":"239,0r-232,-510r91,0r199,440r162,-440r124,0r162,440r199,-440r91,0r-232,510r-119,0r-163,-440r-163,440r-119,0","w":1042,"k":{"e":129,"i":129}},"x":{"d":"5,0r279,-272r-242,-238r118,0r185,187r185,-187r118,0r-242,238r279,272r-123,0r-217,-221r-217,221r-123,0","w":690},"y":{"d":"109,190r0,-70v132,0,160,-9,205,-112r-21,0r-289,-518r97,0r247,451r222,-451r93,0r-288,573v-53,105,-89,125,-266,127","w":667,"k":{"y":111,".":92,"a":111,"c":111,"\u00e7":111,"e":111,"i":111,"o":111,"\u00f6":111,"r":129,"s":111,"u":111,"\u00fc":111,":":111,"-":111,";":111,"p":111,"q":111}},"z":{"d":"45,0r0,-70r453,-368r0,-2r-438,0r0,-70r556,0r0,70r-453,368r0,2r459,0r0,70r-577,0","w":667},"{":{"d":"46,-327r0,-70v41,-1,87,-40,87,-106r0,-89v12,-121,79,-141,191,-132r0,70r-55,0v-68,4,-50,98,-50,165v0,95,-69,117,-93,128v27,5,93,29,93,131v0,67,-17,156,50,160r55,0r0,70v-112,8,-179,-11,-191,-132r0,-84v0,-71,-46,-110,-87,-111","w":370},"|":{"d":"71,-750r80,0r0,1000r-80,0r0,-1000","w":222},"}":{"d":"46,0r0,-70r55,0v68,-4,50,-98,50,-165v0,-95,69,-117,93,-128v-27,-5,-93,-29,-93,-131v0,-67,17,-156,-50,-160r-55,0r0,-70v112,-8,179,11,191,132r0,84v0,71,46,110,87,111r0,70v-41,1,-87,40,-87,106r0,89v-12,121,-79,141,-191,132","w":370},"~":{"d":"406,-185v-69,0,-157,-67,-213,-67v-40,0,-65,38,-88,73r-36,-59v22,-42,58,-84,125,-84v69,0,157,67,213,67v40,0,65,-38,88,-73r36,59v-22,42,-58,84,-125,84","w":600},"'":{"d":"87,-482r0,-242r98,0r0,242r-98,0","w":272},"`":{"d":"153,-588r-184,-185r103,0r148,185r-67,0","w":272},"\u0131":{"d":"93,0r0,-510r86,0r0,510r-86,0","w":272},"\u00c7":{"d":"77,-263r0,-198v0,-183,62,-271,258,-271r375,0v207,9,235,89,227,242r-86,0r0,-33v0,-123,-76,-129,-166,-129r-340,0v-94,0,-170,28,-170,154r0,272v0,126,76,154,170,154r343,0v154,3,176,-44,170,-171r92,0v5,169,-19,249,-245,251r-158,0r-59,72v10,4,29,-6,45,-6v60,0,108,32,108,96v0,127,-174,126,-269,82r19,-38v58,26,170,37,170,-40v0,-60,-71,-61,-121,-44r-21,-18r77,-104r-161,0v-196,0,-258,-88,-258,-271","w":1012},"\u00d6":{"d":"912,-226r0,-272v0,-126,-76,-154,-170,-154r-397,0v-94,0,-170,28,-170,154r0,272v0,126,76,154,170,154r397,0v94,0,170,-28,170,-154xm77,-263r0,-198v0,-183,62,-271,258,-271r417,0v196,0,258,88,258,271r0,198v0,183,-62,271,-258,271r-417,0v-196,0,-258,-88,-258,-271xm396,-786r0,-112r86,0r0,112r-86,0xm606,-786r0,-112r86,0r0,112r-86,0","w":1087},"\u00dc":{"d":"96,-182r0,-542r98,0r0,541v0,70,24,111,157,111r340,0v133,0,157,-41,157,-111r0,-541r98,0r0,542v0,147,-74,190,-258,190r-334,0v-184,0,-258,-43,-258,-190xm373,-786r0,-112r86,0r0,112r-86,0xm583,-786r0,-112r86,0r0,112r-86,0","w":1042},"\u00e7":{"d":"58,-198r0,-114v9,-243,196,-206,400,-206v166,0,227,65,223,187r-80,0v14,-152,-163,-117,-300,-117v-81,0,-157,12,-157,139r0,107v-5,169,164,138,319,140v86,1,154,-28,147,-124r80,0v13,160,-94,203,-279,194r-59,72v10,4,29,-6,45,-6v60,0,108,32,108,96v0,127,-174,126,-269,82r19,-38v58,26,170,37,170,-40v0,-60,-71,-61,-121,-44r-21,-18r77,-104r-88,0v-77,0,-214,-21,-214,-206","w":741},"\u00f6":{"d":"64,-199r0,-112v-3,-213,195,-207,405,-207v163,0,282,39,282,207r0,112v3,213,-195,207,-405,207v-163,0,-282,-39,-282,-207xm665,-204r0,-102v4,-186,-183,-142,-345,-142v-100,0,-170,23,-170,142r0,102v-4,186,183,142,345,142v100,0,170,-23,170,-142xm260,-602r0,-112r86,0r0,112r-86,0xm470,-602r0,-112r86,0r0,112r-86,0","w":815},"\u00fc":{"d":"630,0v-2,-28,4,-64,-2,-88v-37,114,-188,96,-335,96v-161,0,-212,-81,-212,-173r0,-345r86,0r0,324v0,75,21,124,188,124r22,0v201,0,247,-38,247,-158r0,-290r86,0r0,510r-80,0xm248,-602r0,-112r86,0r0,112r-86,0xm458,-602r0,-112r86,0r0,112r-86,0","w":791},"\u20ac":{"d":"943,-645r-42,81v-54,-81,-146,-88,-219,-88r-279,0v-99,-3,-176,37,-170,170r626,0r-38,75r-588,0r0,71r552,0r-40,75r-512,0r0,35v0,126,76,154,170,154r298,0v87,0,169,-33,212,-88r0,103v-118,101,-319,65,-514,65v-195,0,-258,-87,-258,-269r-130,0r40,-75r90,0r0,-71r-130,0r40,-75r90,0v5,-169,70,-250,258,-250r299,0v106,0,175,13,245,87"},"\u00a0":{"w":482}}});


